encog,BasicNetwork,java,3.3.0,1,1470282830243
[BASIC]
[BASIC:PARAMS]
[BASIC:NETWORK]
beginTraining=0
connectionLimit=0
contextTargetOffset=0,0,0,0
contextTargetSize=0,0,0,0
endTraining=3
hasContext=f
inputCount=52
layerCounts=1,7,3,53
layerFeedCounts=1,6,2,52
layerContextCount=0,0,0,0
layerIndex=0,1,8,11
output=0.0087399555,0.1917287755,-0.6674174696,-0.4193425022,-0.1078263293,0.1093787138,0.0757578689,1,-0.2261982605,-0.4761970245,1,0.0023801428,0.0841247965,-0.0675844827,-0.0030201343,0.0037024909,0.0003353454,-0.0107274556,0.0074551,0.0104272116,0.0409453715,-0.0191877199,0.0068470492,-0.0297927471,-0.0103470965,-0.0556492411,-0.04321425,-0.0776409825,0.0558478776,-0.0325795324,-0.0213945721,0.0526315363,0.0300000385,0.0007467513,0.0406716433,-0.1107924027,0.0024194356,-0.0044248188,-0.0379798384,0.0449391031,0.0168810296,-0.0166007912,0.0056270501,0.0567546363,-0.025718645,-0.0652173913,-0.0008306063,0.0465503344,-0.0254169579,0.0191523627,0.0395841663,0.0380769231,0.1367173027,0.0136897001,0.0289389068,-0.0209375,0.0481966167,0.0048721072,-0.0006060606,0.0148575197,-0.0244995212,-0.0045942417,0.0215384923,1
outputCount=1
weightIndex=0,7,25,131
weights=0.5498831073,0.9598292514,-0.4057700225,0.1518811381,0.3975693945,-0.2480290848,0.3654432684,0.4094929759,-0.298818125,0.144461601,0.9651470114,0.3974469196,-0.3984940054,-0.6245276512,-0.3725172239,-0.7655526312,-0.0458006297,0.7431467154,0.2352770815,-0.2529083291,-0.4423289326,-0.1580250823,0.0512683228,-0.7884430543,-0.2879541298,0.3207003424,-0.3194258967,-0.7899092527,0.3822208611,-0.4224213144,0.4241097501,0.1068463614,-1.2108916271,0.0288141857,0.0340889577,-0.0912670504,0.7424413242,-0.5004255196,-0.4558795393,0.5552226983,-1.6957546991,-1.0901403995,0.791810125,0.1472191872,0.335942514,0.2459180574,-0.3439213341,-0.3808145701,-1.5463735451,0.0117571834,-0.2814942027,0.6384077839,-0.0859525996,-0.4348899327,0.6267323509,0.1580993296,1.2727516118,0.5134294555,0.3633815259,-0.119233496,0.9671848658,0.3566569176,0.402812151,-0.093321311,-1.0039655407,-1.0023855466,-0.9532715911,0.0052068013,0.1987643447,0.087753906,-1.0739877937,-0.3679258022,0.5009990564,-0.2516148645,-0.4640424407,-0.5151092406,-0.4795164099,-0.1385025726,-0.4111444949,-0.9634115814,-0.1271498409,-0.2849454058,-0.4786189297,-0.9872855349,-0.561778191,0.0565922675,-0.0504556813,-0.4747495882,0.1954718448,0.9757746572,1.0769901422,0.093532974,-0.3686855498,0.4344342422,-0.524600826,0.0472520658,0.7454484079,0.8318525233,-0.0310106265,1.0535927159,-1.7775744889,-1.4106662169,0.1473532623,0.1837919464,0.9793909084,0.7605045563,0.6372020395,-0.2237221012,-0.5596182567,0.348194125,3.5109446617,-0.0608464056,0.5565640408,-0.6826695417,-0.1584369601,0.5641235697,0.0681501772,-0.8043613126,0.0485018156,-0.3676528019,0.5836882448,0.4751304526,-0.5886480895,0.561990094,-0.3416158587,-1.2262521425,0.3119614535,-0.8626725513,0.3605604022,-0.4348620577,-0.5004603436
biasActivation=0,1,1,1
[BASIC:ACTIVATION]
"org.encog.engine.network.activation.ActivationTANH"
"org.encog.engine.network.activation.ActivationTANH"
"org.encog.engine.network.activation.ActivationTANH"
"org.encog.engine.network.activation.ActivationLinear"
